digraph Tree {
node [shape=box, style="filled, rounded", color="black", fontname=helvetica] ;
edge [fontname=helvetica] ;
0 [label="petal width (cm) <= 0.8\ngini = 0.66\nsamples = 97\nvalue = [60, 48, 42]\nclass = setosa", fillcolor="#e581391e"] ;
1 [label="gini = 0.0\nsamples = 36\nvalue = [60, 0, 0]\nclass = setosa", fillcolor="#e58139ff"] ;
0 -> 1 [labeldistance=2.5, labelangle=45, headlabel="True"] ;
2 [label="petal width (cm) <= 1.55\ngini = 0.5\nsamples = 61\nvalue = [0, 48, 42]\nclass = versicolor", fillcolor="#39e58120"] ;
0 -> 2 [labeldistance=2.5, labelangle=-45, headlabel="False"] ;
3 [label="petal width (cm) <= 1.35\ngini = 0.04\nsamples = 27\nvalue = [0, 43, 1]\nclass = versicolor", fillcolor="#39e581f9"] ;
2 -> 3 ;
4 [label="gini = 0.0\nsamples = 17\nvalue = [0, 25, 0]\nclass = versicolor", fillcolor="#39e581ff"] ;
3 -> 4 ;
5 [label="petal length (cm) <= 5.25\ngini = 0.1\nsamples = 10\nvalue = [0, 18, 1]\nclass = versicolor", fillcolor="#39e581f1"] ;
3 -> 5 ;
6 [label="gini = 0.0\nsamples = 9\nvalue = [0, 18, 0]\nclass = versicolor", fillcolor="#39e581ff"] ;
5 -> 6 ;
7 [label="gini = 0.0\nsamples = 1\nvalue = [0, 0, 1]\nclass = virginica", fillcolor="#8139e5ff"] ;
5 -> 7 ;
8 [label="sepal length (cm) <= 6.05\ngini = 0.19\nsamples = 34\nvalue = [0, 5, 41]\nclass = virginica", fillcolor="#8139e5e0"] ;
2 -> 8 ;
9 [label="sepal length (cm) <= 5.85\ngini = 0.49\nsamples = 7\nvalue = [0, 4, 5]\nclass = virginica", fillcolor="#8139e533"] ;
8 -> 9 ;
10 [label="gini = 0.0\nsamples = 3\nvalue = [0, 0, 4]\nclass = virginica", fillcolor="#8139e5ff"] ;
9 -> 10 ;
11 [label="sepal length (cm) <= 5.95\ngini = 0.32\nsamples = 4\nvalue = [0, 4, 1]\nclass = versicolor", fillcolor="#39e581bf"] ;
9 -> 11 ;
12 [label="petal length (cm) <= 4.95\ngini = 0.44\nsamples = 2\nvalue = [0, 2, 1]\nclass = versicolor", fillcolor="#39e5817f"] ;
11 -> 12 ;
13 [label="gini = 0.0\nsamples = 1\nvalue = [0, 2, 0]\nclass = versicolor", fillcolor="#39e581ff"] ;
12 -> 13 ;
14 [label="gini = 0.0\nsamples = 1\nvalue = [0, 0, 1]\nclass = virginica", fillcolor="#8139e5ff"] ;
12 -> 14 ;
15 [label="gini = 0.0\nsamples = 2\nvalue = [0, 2, 0]\nclass = versicolor", fillcolor="#39e581ff"] ;
11 -> 15 ;
16 [label="petal width (cm) <= 1.75\ngini = 0.05\nsamples = 27\nvalue = [0, 1, 36]\nclass = virginica", fillcolor="#8139e5f8"] ;
8 -> 16 ;
17 [label="sepal length (cm) <= 6.95\ngini = 0.38\nsamples = 2\nvalue = [0, 1, 3]\nclass = virginica", fillcolor="#8139e5aa"] ;
16 -> 17 ;
18 [label="gini = 0.0\nsamples = 1\nvalue = [0, 1, 0]\nclass = versicolor", fillcolor="#39e581ff"] ;
17 -> 18 ;
19 [label="gini = 0.0\nsamples = 1\nvalue = [0, 0, 3]\nclass = virginica", fillcolor="#8139e5ff"] ;
17 -> 19 ;
20 [label="gini = 0.0\nsamples = 25\nvalue = [0, 0, 33]\nclass = virginica", fillcolor="#8139e5ff"] ;
16 -> 20 ;
}